<?xml version="1.0"?>
<opencv_storage>
<cascade>
  <stageType>BOOST</stageType>
  <featureType>LBP</featureType>
  <height>50</height>
  <width>50</width>
  <stageParams>
    <boostType>GAB</boostType>
    <minHitRate>9.9500000476837158e-01</minHitRate>
    <maxFalseAlarm>4.4999998807907104e-01</maxFalseAlarm>
    <weightTrimRate>9.4999999999999996e-01</weightTrimRate>
    <maxDepth>1</maxDepth>
    <maxWeakCount>100</maxWeakCount></stageParams>
  <featureParams>
    <maxCatCount>256</maxCatCount>
    <featSize>1</featSize></featureParams>
  <stageNum>17</stageNum>
  <stages>
    <!-- stage 0 -->
    <_>
      <maxWeakCount>3</maxWeakCount>
      <stageThreshold>-1.1174496412277222e+00</stageThreshold>
      <weakClassifiers>
        <_>
          <internalNodes>
            0 -1 45 -67109906 -1669 1347219688 -2231841 -105911297
            -1144020581 -91493393 -1</internalNodes>
          <leafValues>
            -9.5954579114913940e-01 7.8093492984771729e-01</leafValues></_>
        <_>
          <internalNodes>
            0 -1 47 -1 -2363409 -806814738 -544604161 -1 -1 -132097
            -2097157</internalNodes>
          <leafValues>
            -7.3844164609909058e-01 8.8237667083740234e-01</leafValues></_>
        <_>
          <internalNodes>
            0 -1 51 -138089268 -633898 -63645217 -2236577 -247404060
            -108456542 -470746113 -1</internalNodes>
          <leafValues>
            -9.4347292184829712e-01 5.8053779602050781e-01</leafValues></_></weakClassifiers></_>
    <!-- stage 1 -->
    <_>
      <maxWeakCount>3</maxWeakCount>
      <stageThreshold>-1.0496162176132202e+00</stageThreshold>
      <weakClassifiers>
        <_>
          <internalNodes>
            0 -1 39 -1 -69214209 -7805746 -37224449 -12587009 -67108901
            -65 -1048577</internalNodes>
          <leafValues>
            -7.9690951108932495e-01 8.3488243818283081e-01</leafValues></_>
        <_>
          <internalNodes>
            0 -1 18 -67637590 -42097494 1095838399 -615140877 2064616335
            -100568946 -74724433 -3137</internalNodes>
          <leafValues>
            -8.5800105333328247e-01 5.5534821748733521e-01</leafValues></_>
        <_>
          <internalNodes>
            0 -1 25 -76550394 1431527683 -2142907957 1934835933
            559004343 538116401 -817255957 -814241881</internalNodes>
          <leafValues>
            -7.9520565271377563e-01 6.0529434680938721e-01</leafValues></_></weakClassifiers></_>
    <!-- stage 2 -->
    <_>
      <maxWeakCount>3</maxWeakCount>
      <stageThreshold>-8.9349985122680664e-01</stageThreshold>
      <weakClassifiers>
        <_>
          <internalNodes>
            0 -1 78 -524337 -207888333 1628688591 -475282865 1898053463
            1879073029 -473437429 -134744321</internalNodes>
          <leafValues>
            -7.9290133714675903e-01 7.4390876293182373e-01</leafValues></_>
        <_>
          <internalNodes>
            0 -1 1 -1026555905 1370224526 87003485 1969225298
            -2100446721 -238065526 -492839169 -113</internalNodes>
          <leafValues>
            -7.2131621837615967e-01 6.8083018064498901e-01</leafValues></_>
        <_>
          <internalNodes>
            0 -1 86 -487850262 -2106152301 -2146992114 -497628453
            1128784615 841445395 1363917807 -51904529</internalNodes>
          <leafValues>
            -7.4246829748153687e-01 6.2071770429611206e-01</leafValues></_></weakClassifiers></_>
    <!-- stage 3 -->
    <_>
      <maxWeakCount>5</maxWeakCount>
      <stageThreshold>-1.3609504699707031e+00</stageThreshold>
      <weakClassifiers>
        <_>
          <internalNodes>
            0 -1 24 -1 -705298437 -268435457 1439694847 -262145
            -38273281 -306184193 -704643329</internalNodes>
          <leafValues>
            -7.2568273544311523e-01 7.8403216600418091e-01</leafValues></_>
        <_>
          <internalNodes>
            0 -1 72 -150995390 -744620033 -760220009 -70790753
            -238552233 -125140957 1138479571 -151000321</internalNodes>
          <leafValues>
            -7.9462069272994995e-01 5.3822737932205200e-01</leafValues></_>
        <_>
          <internalNodes>
            0 -1 31 -619194914 -10512482 -271725398 -9707574 13360111
            -104185717 -572831574 -1066294</internalNodes>
          <leafValues>
            -8.5687845945358276e-01 4.5101481676101685e-01</leafValues></_>
        <_>
          <internalNodes>
            0 -1 22 -93323478 -244059839 805493135 -713565321
            -1808541525 -2080194287 -341578017 -775954125</internalNodes>
          <leafValues>
            -7.0831048488616943e-01 5.2303951978683472e-01</leafValues></_>
        <_>
          <internalNodes>
            0 -1 68 -957516054 -261484389 10359490 -528057937 1110964163
            -2138848632 -243024653 -420611345</internalNodes>
          <leafValues>
            -8.7892276048660278e-01 4.1664865612983704e-01</leafValues></_></weakClassifiers></_>
    <!-- stage 4 -->
    <_>
      <maxWeakCount>4</maxWeakCount>
      <stageThreshold>-1.6416542530059814e+00</stageThreshold>
      <weakClassifiers>
        <_>
          <internalNodes>
            0 -1 20 -2097154 -14683145 -485764974 -13901037 -578051843
            -385439563 -375393028 -547</internalNodes>
          <leafValues>
            -7.9776066541671753e-01 5.9757238626480103e-01</leafValues></_>
        <_>
          <internalNodes>
            0 -1 2 -67450130 -538929 52547071 1567981799 -878655313
            -75333493 -283522305 -67374209</internalNodes>
          <leafValues>
            -7.9198700189590454e-01 5.2428263425827026e-01</leafValues></_>
        <_>
          <internalNodes>
            0 -1 33 -18 -79703947 -367968120 -580914367 -250359312
            -682508271 -619971588 -637808139</internalNodes>
          <leafValues>
            -6.9645261764526367e-01 5.8227545022964478e-01</leafValues></_>
        <_>
          <internalNodes>
            0 -1 91 -285221890 -158141985 1343420532 -220949770
            -1281388036 1350685325 -609408084 -537960449</internalNodes>
          <leafValues>
            -6.7172360420227051e-01 5.4383569955825806e-01</leafValues></_></weakClassifiers></_>
    <!-- stage 5 -->
    <_>
      <maxWeakCount>5</maxWeakCount>
      <stageThreshold>-1.3072595596313477e+00</stageThreshold>
      <weakClassifiers>
        <_>
          <internalNodes>
            0 -1 87 -17629190 -493684086 767947775 -3181577 -475796817
            -470570833 -930354529 -5121</internalNodes>
          <leafValues>
            -8.2246375083923340e-01 5.6696426868438721e-01</leafValues></_>
        <_>
          <internalNodes>
            0 -1 30 -674236497 -82618585 -853945857 -580791853
            1658012258 -82640829 865464319 -11575005</internalNodes>
          <leafValues>
            -6.3458269834518433e-01 6.5458071231842041e-01</leafValues></_>
        <_>
          <internalNodes>
            0 -1 19 -1428161606 -547909353 725604351 1531942482
            183668203 -280326133 784993503 -268436085</internalNodes>
          <leafValues>
            -6.7619425058364868e-01 5.0308704376220703e-01</leafValues></_>
        <_>
          <internalNodes>
            0 -1 80 -203430162 -1028354010 -1333260094 -1079551925
            1892933443 1079152800 -1279796905 -1208488961</internalNodes>
          <leafValues>
            -7.9025816917419434e-01 4.3519374728202820e-01</leafValues></_>
        <_>
          <internalNodes>
            0 -1 23 -73401890 -87089665 1594167806 -1686056837
            -2146977965 -147750893 -1063607568 -773666313</internalNodes>
          <leafValues>
            -7.7285027503967285e-01 4.3695807456970215e-01</leafValues></_></weakClassifiers></_>
    <!-- stage 6 -->
    <_>
      <maxWeakCount>6</maxWeakCount>
      <stageThreshold>-1.5977128744125366e+00</stageThreshold>
      <weakClassifiers>
        <_>
          <internalNodes>
            0 -1 77 -1310721 -6594373 -1247034417 -1153236597 -230376465
            -1537177365 -1609831441 -1213879665</internalNodes>
          <leafValues>
            -7.1345597505569458e-01 6.3703316450119019e-01</leafValues></_>
        <_>
          <internalNodes>
            0 -1 84 -957617918 -497032381 -639631501 -270544775
            1097577199 61528818 -1130370309 -1397</internalNodes>
          <leafValues>
            -7.1504193544387817e-01 4.9284985661506653e-01</leafValues></_>
        <_>
          <internalNodes>
            0 -1 35 -723780102 -706223385 -452227041 -853555435
            -1179916037 -1780365147 -1291064641 -643958283</internalNodes>
          <leafValues>
            -6.3722187280654907e-01 5.4099041223526001e-01</leafValues></_>
        <_>
          <internalNodes>
            0 -1 5 -268439730 2054681445 -2071362629 -78392909
            -431490833 -364891529 -477500421 -67376137</internalNodes>
          <leafValues>
            -6.0204464197158813e-01 5.3837156295776367e-01</leafValues></_>
        <_>
          <internalNodes>
            0 -1 21 -212140033 -214818001 -1342181377 -404262145
            576704247 -1175977993 603975534 -1887469569</internalNodes>
          <leafValues>
            -4.7945255041122437e-01 6.7488694190979004e-01</leafValues></_>
        <_>
          <internalNodes>
            0 -1 27 -671088818 -126987481 -788458498 -81865985
            1933816599 -752639696 998687654 -793323085</internalNodes>
          <leafValues>
            -7.8304767608642578e-01 3.8677757978439331e-01</leafValues></_></weakClassifiers></_>
    <!-- stage 7 -->
    <_>
      <maxWeakCount>5</maxWeakCount>
      <stageThreshold>-1.0874034166336060e+00</stageThreshold>
      <weakClassifiers>
        <_>
          <internalNodes>
            0 -1 56 -786573551 -107409391 -443417121 -40300271
            -351735105 -1163165559 -1467041089 -1087690705</internalNodes>
          <leafValues>
            -7.4603176116943359e-01 6.3562750816345215e-01</leafValues></_>
        <_>
          <internalNodes>
            0 -1 16 -1839472673 1930760765 -1622817441 524646144
            -2096378433 -82800622 705351391 -1352729617</internalNodes>
          <leafValues>
            -6.8916338682174683e-01 5.5702382326126099e-01</leafValues></_>
        <_>
          <internalNodes>
            0 -1 54 -69209601 -36261861 -1660562210 2140862618 -78411280
            -74317635 -1431988056 -573712148</internalNodes>
          <leafValues>
            -7.0294952392578125e-01 5.1475769281387329e-01</leafValues></_>
        <_>
          <internalNodes>
            0 -1 75 -77 2080370683 -67141839 -8388623 -1133514821
            -1300496527 -1938344517 -14199791</internalNodes>
          <leafValues>
            -5.4124021530151367e-01 6.0309666395187378e-01</leafValues></_>
        <_>
          <internalNodes>
            0 -1 43 -489699346 -258223463 -523823148 4826369 1225755343
            -7733248 -1970828657 -376989687</internalNodes>
          <leafValues>
            -7.5327825546264648e-01 4.4764456152915955e-01</leafValues></_></weakClassifiers></_>
    <!-- stage 8 -->
    <_>
      <maxWeakCount>5</maxWeakCount>
      <stageThreshold>-1.1308791637420654e+00</stageThreshold>
      <weakClassifiers>
        <_>
          <internalNodes>
            0 -1 90 -286265425 -269507803 -343681775 -3158005 -83898881
            -376796981 -103810385 -2098177</internalNodes>
          <leafValues>
            -6.7592883110046387e-01 6.4830273389816284e-01</leafValues></_>
        <_>
          <internalNodes>
            0 -1 6 -279976977 -1155324633 -1018919523 -145656881
            587940335 -16289534 -876004705 -8967641</internalNodes>
          <leafValues>
            -5.9143769741058350e-01 6.0017019510269165e-01</leafValues></_>
        <_>
          <internalNodes>
            0 -1 44 1793646078 -82815956 420706300 -280353744 715612413
            -883945456 798951641 183369830</internalNodes>
          <leafValues>
            -7.7373921871185303e-01 3.9437216520309448e-01</leafValues></_>
        <_>
          <internalNodes>
            0 -1 7 -83887122 1895519679 -1312861868 1903616479
            1965816791 1258520699 -612369680 -4458049</internalNodes>
          <leafValues>
            -6.8769770860671997e-01 4.4110989570617676e-01</leafValues></_>
        <_>
          <internalNodes>
            0 -1 82 1659630250 1616564993 -482222706 -288159545
            1123547103 -1299545942 -884284081 -150997349</internalNodes>
          <leafValues>
            -6.2567228078842163e-01 4.6911662817001343e-01</leafValues></_></weakClassifiers></_>
    <!-- stage 9 -->
    <_>
      <maxWeakCount>7</maxWeakCount>
      <stageThreshold>-1.1001657247543335e+00</stageThreshold>
      <weakClassifiers>
        <_>
          <internalNodes>
            0 -1 37 -642254849 488321363 -208123394 -69250093
            -2120570437 196325483 -102765569 -67374593</internalNodes>
          <leafValues>
            -7.4028700590133667e-01 5.2029865980148315e-01</leafValues></_>
        <_>
          <internalNodes>
            0 -1 36 -71303185 -13469825 1879042047 -9276814 662140911
            -13140161 -1342222337 -8423561</internalNodes>
          <leafValues>
            -5.2731072902679443e-01 6.7853301763534546e-01</leafValues></_>
        <_>
          <internalNodes>
            0 -1 63 -1737949202 -181338262 -654124593 -34262352
            -226351629 -1148092151 782200827 150799373</internalNodes>
          <leafValues>
            -6.9925296306610107e-01 4.2266890406608582e-01</leafValues></_>
        <_>
          <internalNodes>
            0 -1 3 -287840762 2090328447 -1579162167 731617242
            -896812058 785019291 -1736978433 -906008837</internalNodes>
          <leafValues>
            -6.6369420289993286e-01 4.3204182386398315e-01</leafValues></_>
        <_>
          <internalNodes>
            0 -1 73 -202640209 -234168149 1523040458 -479801173
            -515380405 -1073381227 -485230125 -138954245</internalNodes>
          <leafValues>
            -5.9284478425979614e-01 5.1465904712677002e-01</leafValues></_>
        <_>
          <internalNodes>
            0 -1 74 -2036451138 -644468732 -183329444 -175228412
            -505683267 -163020637 1267336092 -1648907777</internalNodes>
          <leafValues>
            -5.8587294816970825e-01 4.7357216477394104e-01</leafValues></_>
        <_>
          <internalNodes>
            0 -1 81 1659370406 -499874837 -114572369 -3489385 1081588447
            -2147415834 -204477605 -2145637</internalNodes>
          <leafValues>
            -5.4028761386871338e-01 5.2772998809814453e-01</leafValues></_></weakClassifiers></_>
    <!-- stage 10 -->
    <_>
      <maxWeakCount>6</maxWeakCount>
      <stageThreshold>-1.0041565895080566e+00</stageThreshold>
      <weakClassifiers>
        <_>
          <internalNodes>
            0 -1 66 -753795590 -586841110 291763167 2145382909 996928250
            -79658352 1211890171 -656419</internalNodes>
          <leafValues>
            -7.4687165021896362e-01 4.9432590603828430e-01</leafValues></_>
        <_>
          <internalNodes>
            0 -1 12 -1156579857 2004317991 -438871585 -134778401
            -418395649 -214464177 703316747 -872432657</internalNodes>
          <leafValues>
            -5.9559947252273560e-01 5.4844504594802856e-01</leafValues></_>
        <_>
          <internalNodes>
            0 -1 89 -355470594 -221735461 898955924 -151602729
            -841769515 -1859851646 -94430547 -1064961</internalNodes>
          <leafValues>
            -6.3247805833816528e-01 4.4094049930572510e-01</leafValues></_>
        <_>
          <internalNodes>
            0 -1 38 -270532786 846405459 425707871 -34089673 823257461
            -334296576 1340329377 -34909897</internalNodes>
          <leafValues>
            -6.9160014390945435e-01 4.0312597155570984e-01</leafValues></_>
        <_>
          <internalNodes>
            0 -1 28 2113798028 -10879711 -114187092 -6946989 -612200529
            -227288 -104740369 -3541335</internalNodes>
          <leafValues>
            -8.7672454118728638e-01 3.3023080229759216e-01</leafValues></_>
        <_>
          <internalNodes>
            0 -1 62 -1193217826 -1114578500 -1744732877 2104564541
            -1410628621 -73891804 931699707 217329809</internalNodes>
          <leafValues>
            -7.0342946052551270e-01 3.7097251415252686e-01</leafValues></_></weakClassifiers></_>
    <!-- stage 11 -->
    <_>
      <maxWeakCount>7</maxWeakCount>
      <stageThreshold>-1.1652575731277466e+00</stageThreshold>
      <weakClassifiers>
        <_>
          <internalNodes>
            0 -1 8 -1 -4097 -1029 -134481169 -1 -571539985 -1 -570687745</internalNodes>
          <leafValues>
            -6.1862397193908691e-01 6.6707617044448853e-01</leafValues></_>
        <_>
          <internalNodes>
            0 -1 92 -489690590 1713356651 1359458495 -606080225
            -202902799 -1031638880 -100159045 -100673801</internalNodes>
          <leafValues>
            -6.5452980995178223e-01 4.7714474797248840e-01</leafValues></_>
        <_>
          <internalNodes>
            0 -1 50 -70779425 -278427206 -485412517 -3157542 -379077643
            -391741017 -1110508348 -642280963</internalNodes>
          <leafValues>
            -5.3518635034561157e-01 5.1821821928024292e-01</leafValues></_>
        <_>
          <internalNodes>
            0 -1 4 2043332863 -1115996089 -1387740232 1292760050
            -1178625813 -1701076861 -1187122181 -1142969681</internalNodes>
          <leafValues>
            -5.6325775384902954e-01 4.7466400265693665e-01</leafValues></_>
        <_>
          <internalNodes>
            0 -1 15 -287312050 1343672702 -162311950 -65924966
            1875093828 -2004123637 2079849202 -537659217</internalNodes>
          <leafValues>
            -7.4861431121826172e-01 3.7049788236618042e-01</leafValues></_>
        <_>
          <internalNodes>
            0 -1 61 -382977666 1062228086 -184090341 2102596370
            1125327034 -551219184 706874303 -1454568600</internalNodes>
          <leafValues>
            -5.9925144910812378e-01 4.4576513767242432e-01</leafValues></_>
        <_>
          <internalNodes>
            0 -1 42 1079558640 -633290415 -1023339749 -548337643
            1210056913 -1964392293 198189753 531431723</internalNodes>
          <leafValues>
            -5.8995777368545532e-01 4.7126778960227966e-01</leafValues></_></weakClassifiers></_>
    <!-- stage 12 -->
    <_>
      <maxWeakCount>7</maxWeakCount>
      <stageThreshold>-1.3769727945327759e+00</stageThreshold>
      <weakClassifiers>
        <_>
          <internalNodes>
            0 -1 83 -606077441 -221195685 84657266 -541014654
            -1968707145 -209616761 -924865889 -273484369</internalNodes>
          <leafValues>
            -7.2004097700119019e-01 5.3549009561538696e-01</leafValues></_>
        <_>
          <internalNodes>
            0 -1 59 -8432561 -44722821 -2096518417 -82734509 1074348459
            -13757931 -257232641 -4621317</internalNodes>
          <leafValues>
            -6.2831622362136841e-01 4.9484553933143616e-01</leafValues></_>
        <_>
          <internalNodes>
            0 -1 26 -20448466 2004830071 2038534655 -15076545 -313015193
            -1375584233 -1701205569 -588513801</internalNodes>
          <leafValues>
            -6.3925218582153320e-01 4.5617160201072693e-01</leafValues></_>
        <_>
          <internalNodes>
            0 -1 67 -415771138 -543815532 1629376728 -15735503
            -2029301590 -914194409 -1968186523 498585831</internalNodes>
          <leafValues>
            -6.4474451541900635e-01 4.1895249485969543e-01</leafValues></_>
        <_>
          <internalNodes>
            0 -1 60 -799222512 1552748560 1074805055 386269186
            -997140807 -259258294 -1393407047 706742834</internalNodes>
          <leafValues>
            -6.3610428571701050e-01 4.5273640751838684e-01</leafValues></_>
        <_>
          <internalNodes>
            0 -1 55 -225509626 -403129549 1073836435 -4813485 1729224737
            -803091807 1326047413 -853704607</internalNodes>
          <leafValues>
            -6.5905797481536865e-01 3.9881908893585205e-01</leafValues></_>
        <_>
          <internalNodes>
            0 -1 71 -796920722 -701366205 303972422 -1878879981
            -654237315 1795596802 -203173389 -55051297</internalNodes>
          <leafValues>
            -6.8165779113769531e-01 4.0382567048072815e-01</leafValues></_></weakClassifiers></_>
    <!-- stage 13 -->
    <_>
      <maxWeakCount>7</maxWeakCount>
      <stageThreshold>-1.8854479789733887e+00</stageThreshold>
      <weakClassifiers>
        <_>
          <internalNodes>
            0 -1 0 -203423745 -169885697 -1048577 -171966465 -270794753
            -3145729 -17825793 -1</internalNodes>
          <leafValues>
            -6.1625146865844727e-01 6.6216218471527100e-01</leafValues></_>
        <_>
          <internalNodes>
            0 -1 70 -101 -327829 -2607 -67145743 -1073741909 -1085014175
            217746841 -533071</internalNodes>
          <leafValues>
            -5.3841155767440796e-01 5.6825536489486694e-01</leafValues></_>
        <_>
          <internalNodes>
            0 -1 53 -76548097 -1021149394 2147481599 -545718346
            -1350572229 -8552585 2139091946 -33590913</internalNodes>
          <leafValues>
            -4.3551394343376160e-01 6.5225201845169067e-01</leafValues></_>
        <_>
          <internalNodes>
            0 -1 79 -67110194 1779630129 -488517490 -8023911 1411906126
            1610776715 -1247290809 -202900481</internalNodes>
          <leafValues>
            -7.2340840101242065e-01 3.5030612349510193e-01</leafValues></_>
        <_>
          <internalNodes>
            0 -1 41 1078743951 -645316599 423723485 1608187968
            -905201157 -620013391 -920661764 -871841632</internalNodes>
          <leafValues>
            -5.7421851158142090e-01 5.0512838363647461e-01</leafValues></_>
        <_>
          <internalNodes>
            0 -1 11 -1071842116 -713559199 -721111683 1599426901
            101763997 -879742936 1073758427 -1077868669</internalNodes>
          <leafValues>
            -5.4576259851455688e-01 5.2881467342376709e-01</leafValues></_>
        <_>
          <internalNodes>
            0 -1 32 1918037183 -145599875 702383227 -809082812 21859498
            -1789689742 164526925 148801711</internalNodes>
          <leafValues>
            -6.3789534568786621e-01 4.2337468266487122e-01</leafValues></_></weakClassifiers></_>
    <!-- stage 14 -->
    <_>
      <maxWeakCount>7</maxWeakCount>
      <stageThreshold>-1.3228343725204468e+00</stageThreshold>
      <weakClassifiers>
        <_>
          <internalNodes>
            0 -1 76 -1 -1177081799 -1952742953 -1681031038 1128984319
            -1818521461 -2121619238 -489712982</internalNodes>
          <leafValues>
            -6.6255676746368408e-01 5.4327422380447388e-01</leafValues></_>
        <_>
          <internalNodes>
            0 -1 52 -280307714 -13970538 1426536535 2140819538
            1683198411 -64002813 153294987 -2137509</internalNodes>
          <leafValues>
            -5.3903537988662720e-01 5.3463947772979736e-01</leafValues></_>
        <_>
          <internalNodes>
            0 -1 46 -1420844810 -788286793 1220768523 -976760400
            -1341740630 -921108223 -98204917 -927991351</internalNodes>
          <leafValues>
            -5.5777138471603394e-01 4.8487105965614319e-01</leafValues></_>
        <_>
          <internalNodes>
            0 -1 69 216983106 -581870286 289587539 -1725185483
            -2088001285 2013300737 -2138840585 -1410599005</internalNodes>
          <leafValues>
            -8.2386052608489990e-01 3.2847189903259277e-01</leafValues></_>
        <_>
          <internalNodes>
            0 -1 48 -286563801 -782279337 134222100 -543222173
            -1432186623 -350805936 1665374208 -336606825</internalNodes>
          <leafValues>
            -5.6752848625183105e-01 4.8233786225318909e-01</leafValues></_>
        <_>
          <internalNodes>
            0 -1 14 2023248126 -197459933 1972397380 -209857639
            -1432834421 -1693580798 -274804949 -1279393506</internalNodes>
          <leafValues>
            -7.7742403745651245e-01 2.9568788409233093e-01</leafValues></_>
        <_>
          <internalNodes>
            0 -1 57 -8924898 1494315017 134267113 2131824791 1506362506
            -24639480 1610928328 -83051848</internalNodes>
          <leafValues>
            -5.6611585617065430e-01 4.5855551958084106e-01</leafValues></_></weakClassifiers></_>
    <!-- stage 15 -->
    <_>
      <maxWeakCount>6</maxWeakCount>
      <stageThreshold>-1.7562100887298584e+00</stageThreshold>
      <weakClassifiers>
        <_>
          <internalNodes>
            0 -1 29 -201328785 1939854143 328944063 -677658081
            -1742230665 -98041804 -1718908255 -2384985</internalNodes>
          <leafValues>
            -7.1438473463058472e-01 5.0165486335754395e-01</leafValues></_>
        <_>
          <internalNodes>
            0 -1 85 -870618289 1175569305 -1580936301 -104492600
            1367406847 1537837194 -1433281537 -7402785</internalNodes>
          <leafValues>
            -6.6541725397109985e-01 4.4219875335693359e-01</leafValues></_>
        <_>
          <internalNodes>
            0 -1 65 -101908482 -34292228 -34603057 -37914626 -1074292226
            -28673 -17825850 -1460839642</internalNodes>
          <leafValues>
            -5.1727634668350220e-01 5.7026189565658569e-01</leafValues></_>
        <_>
          <internalNodes>
            0 -1 34 -476589665 -804957951 -922660520 1743688282
            -368050757 -1171357549 -1114965512 -853376583</internalNodes>
          <leafValues>
            -6.2392801046371460e-01 4.4481587409973145e-01</leafValues></_>
        <_>
          <internalNodes>
            0 -1 13 -31219346 1953962871 -931030569 2002231775
            -1071410449 1899225205 -1735916838 1888657891</internalNodes>
          <leafValues>
            -6.9860476255416870e-01 4.0735492110252380e-01</leafValues></_>
        <_>
          <internalNodes>
            0 -1 10 -1002341304 -604827312 17891754 1604125332
            -1191137121 -670362131 -2108960770 1665601722</internalNodes>
          <leafValues>
            -8.2138252258300781e-01 2.5618892908096313e-01</leafValues></_></weakClassifiers></_>
    <!-- stage 16 -->
    <_>
      <maxWeakCount>7</maxWeakCount>
      <stageThreshold>-1.1703518629074097e+00</stageThreshold>
      <weakClassifiers>
        <_>
          <internalNodes>
            0 -1 58 -2097665 -2097281 -807406609 -537919489 -1058092305
            -7602177 -251920642 -536871041</internalNodes>
          <leafValues>
            -5.8335691690444946e-01 7.2324472665786743e-01</leafValues></_>
        <_>
          <internalNodes>
            0 -1 88 -254020642 -221216689 1159351256 -676167190
            -503061659 -182115709 -1030853734 -806043217</internalNodes>
          <leafValues>
            -6.8524557352066040e-01 4.4140228629112244e-01</leafValues></_>
        <_>
          <internalNodes>
            0 -1 9 -1018461811 -10869757 1125646487 1330103367
            -1836744262 -1197827925 50569455 -1062555649</internalNodes>
          <leafValues>
            -6.1184406280517578e-01 4.5295670628547668e-01</leafValues></_>
        <_>
          <internalNodes>
            0 -1 64 -117573871 -541814763 -1044294667 -184501230
            -536821544 -1163059068 -402369986 973742084</internalNodes>
          <leafValues>
            -5.8266460895538330e-01 4.4938516616821289e-01</leafValues></_>
        <_>
          <internalNodes>
            0 -1 40 -271587798 6004875 1075118464 -494763618 1736998916
            587431939 2024119473 -402943350</internalNodes>
          <leafValues>
            -5.5215996503829956e-01 5.0687825679779053e-01</leafValues></_>
        <_>
          <internalNodes>
            0 -1 17 -1411925538 2098536213 1161918805 352387397
            -1026601075 -1358884736 -1391362027 1862529433</internalNodes>
          <leafValues>
            -6.4699685573577881e-01 3.9822363853454590e-01</leafValues></_>
        <_>
          <internalNodes>
            0 -1 49 1612438310 -46988493 -989380481 2144179090 537264499
            -578682783 168659075 -859226075</internalNodes>
          <leafValues>
            -6.5015488862991333e-01 4.4297704100608826e-01</leafValues></_></weakClassifiers></_></stages>
  <features>
    <_>
      <rect>
        0 0 10 13</rect></_>
    <_>
      <rect>
        0 2 10 10</rect></_>
    <_>
      <rect>
        0 2 14 7</rect></_>
    <_>
      <rect>
        0 6 4 8</rect></_>
    <_>
      <rect>
        0 8 14 14</rect></_>
    <_>
      <rect>
        0 9 6 8</rect></_>
    <_>
      <rect>
        0 12 7 4</rect></_>
    <_>
      <rect>
        0 19 5 5</rect></_>
    <_>
      <rect>
        0 21 10 8</rect></_>
    <_>
      <rect>
        0 26 11 7</rect></_>
    <_>
      <rect>
        0 31 16 6</rect></_>
    <_>
      <rect>
        1 0 11 5</rect></_>
    <_>
      <rect>
        1 5 7 8</rect></_>
    <_>
      <rect>
        1 7 6 9</rect></_>
    <_>
      <rect>
        1 8 13 10</rect></_>
    <_>
      <rect>
        1 16 4 5</rect></_>
    <_>
      <rect>
        2 0 9 8</rect></_>
    <_>
      <rect>
        2 0 11 9</rect></_>
    <_>
      <rect>
        2 0 16 9</rect></_>
    <_>
      <rect>
        2 1 11 8</rect></_>
    <_>
      <rect>
        2 13 5 11</rect></_>
    <_>
      <rect>
        3 4 7 7</rect></_>
    <_>
      <rect>
        3 7 6 10</rect></_>
    <_>
      <rect>
        3 20 6 5</rect></_>
    <_>
      <rect>
        4 2 8 15</rect></_>
    <_>
      <rect>
        4 7 5 8</rect></_>
    <_>
      <rect>
        4 12 4 6</rect></_>
    <_>
      <rect>
        4 18 6 5</rect></_>
    <_>
      <rect>
        5 6 15 7</rect></_>
    <_>
      <rect>
        5 15 4 6</rect></_>
    <_>
      <rect>
        5 15 5 3</rect></_>
    <_>
      <rect>
        5 17 15 11</rect></_>
    <_>
      <rect>
        6 1 5 8</rect></_>
    <_>
      <rect>
        6 14 5 8</rect></_>
    <_>
      <rect>
        6 23 5 7</rect></_>
    <_>
      <rect>
        7 9 5 12</rect></_>
    <_>
      <rect>
        7 11 5 4</rect></_>
    <_>
      <rect>
        7 11 13 13</rect></_>
    <_>
      <rect>
        7 15 4 5</rect></_>
    <_>
      <rect>
        8 11 11 13</rect></_>
    <_>
      <rect>
        8 19 1 3</rect></_>
    <_>
      <rect>
        8 29 4 5</rect></_>
    <_>
      <rect>
        9 0 7 3</rect></_>
    <_>
      <rect>
        9 2 7 10</rect></_>
    <_>
      <rect>
        9 3 5 5</rect></_>
    <_>
      <rect>
        9 9 11 9</rect></_>
    <_>
      <rect>
        10 11 4 11</rect></_>
    <_>
      <rect>
        10 13 10 12</rect></_>
    <_>
      <rect>
        10 15 2 4</rect></_>
    <_>
      <rect>
        10 15 3 5</rect></_>
    <_>
      <rect>
        10 21 4 6</rect></_>
    <_>
      <rect>
        11 1 13 15</rect></_>
    <_>
      <rect>
        11 9 4 4</rect></_>
    <_>
      <rect>
        11 13 4 2</rect></_>
    <_>
      <rect>
        11 21 2 7</rect></_>
    <_>
      <rect>
        12 18 3 5</rect></_>
    <_>
      <rect>
        13 0 12 5</rect></_>
    <_>
      <rect>
        13 7 12 5</rect></_>
    <_>
      <rect>
        13 10 12 7</rect></_>
    <_>
      <rect>
        14 7 12 8</rect></_>
    <_>
      <rect>
        15 1 10 3</rect></_>
    <_>
      <rect>
        15 12 3 3</rect></_>
    <_>
      <rect>
        16 7 3 4</rect></_>
    <_>
      <rect>
        16 10 3 4</rect></_>
    <_>
      <rect>
        17 2 8 4</rect></_>
    <_>
      <rect>
        17 10 3 3</rect></_>
    <_>
      <rect>
        17 22 11 8</rect></_>
    <_>
      <rect>
        18 24 5 7</rect></_>
    <_>
      <rect>
        19 7 4 10</rect></_>
    <_>
      <rect>
        20 0 3 10</rect></_>
    <_>
      <rect>
        20 28 10 5</rect></_>
    <_>
      <rect>
        21 10 3 10</rect></_>
    <_>
      <rect>
        22 2 4 11</rect></_>
    <_>
      <rect>
        23 14 4 7</rect></_>
    <_>
      <rect>
        23 26 3 8</rect></_>
    <_>
      <rect>
        23 30 9 5</rect></_>
    <_>
      <rect>
        25 4 7 11</rect></_>
    <_>
      <rect>
        25 5 7 14</rect></_>
    <_>
      <rect>
        25 8 5 11</rect></_>
    <_>
      <rect>
        25 11 4 8</rect></_>
    <_>
      <rect>
        25 16 3 5</rect></_>
    <_>
      <rect>
        28 10 4 8</rect></_>
    <_>
      <rect>
        30 9 4 7</rect></_>
    <_>
      <rect>
        31 12 4 11</rect></_>
    <_>
      <rect>
        31 12 5 6</rect></_>
    <_>
      <rect>
        31 12 6 4</rect></_>
    <_>
      <rect>
        31 14 4 6</rect></_>
    <_>
      <rect>
        32 6 6 12</rect></_>
    <_>
      <rect>
        32 14 3 9</rect></_>
    <_>
      <rect>
        33 15 4 7</rect></_>
    <_>
      <rect>
        35 5 5 8</rect></_>
    <_>
      <rect>
        35 19 4 7</rect></_>
    <_>
      <rect>
        39 11 3 7</rect></_></features></cascade>
</opencv_storage>
